Language model created by QuickLM on Tue Feb  2 18:04:38 EST 2021
Copyright (c) 1996-2010 Carnegie Mellon University and Alexander I. Rudnicky

The model is in standard ARPA format, designed by Doug Paul while he was at MITRE.

The code that was used to produce this language model is available in Open Source.
Please visit http://www.speech.cs.cmu.edu/tools/ for more information

The (fixed) discount mass is 0.5. The backoffs are computed using the ratio method.
This model based on a corpus of 126 sentences and 130 words

\data\
ngram 1=130
ngram 2=253
ngram 3=155

\1-grams:
-0.8249 </s> -0.3010
-0.8249 <s> -0.2208
-2.9253 A -0.2995
-2.9253 ADVISORY -0.2306
-2.9253 AFTER -0.2306
-2.6243 AIR -0.2300
-2.9253 ATMOSPHERIC -0.3005
-2.9253 BAD -0.2306
-2.9253 BEATS -0.2306
-2.9253 BEFORE -0.2306
-2.9253 BLIZZARD -0.2306
-2.9253 BRIGHT -0.2306
-2.4482 CHANCE -0.2984
-2.9253 CLEAR -0.3005
-2.9253 CLOUDY -0.2306
-2.9253 COLD -0.2306
-2.9253 CONDITIONS -0.2306
-2.6243 CURRENT -0.2306
-2.9253 DANCE -0.2306
-2.9253 DENSE -0.3000
-2.9253 DIRECTION -0.2306
-2.9253 DROUGHT -0.2306
-2.9253 DUST -0.2995
-2.9253 EAST -0.2306
-2.9253 FALL -0.2306
-2.4482 FIRE -0.2288
-2.6243 FIREWORK -0.2306
-2.6243 FIREWORKS -0.2306
-2.9253 FIVE -0.2306
-2.9253 FLASH -0.3000
-2.6243 FLICKER -0.2306
-2.6243 FLOOD -0.2300
-2.6243 FOG -0.2306
-2.9253 FOGGY -0.2306
-2.6243 FORECAST -0.2306
-2.9253 FREEZING -0.2306
-2.9253 GALAXY -0.2306
-2.9253 GOOD -0.2306
-2.6243 GUST -0.2990
-2.9253 HAIL -0.2306
-2.9253 HAILING -0.2306
-2.9253 HAZARDOUS -0.2995
-2.9253 HEALTHY -0.2306
-2.9253 HEAT -0.2306
-2.9253 HEAVY -0.2306
-2.6243 HOT -0.2306
-2.9253 HUMIDITY -0.2306
-2.9253 HURRICANES -0.2306
-2.9253 ICE -0.2306
-2.9253 ICY -0.2306
-2.9253 INDEX -0.2306
-2.4482 IS -0.2270
-2.9253 IT -0.2984
-2.9253 KILL -0.3005
-2.6243 LAST -0.2306
-2.9253 LEFT -0.2306
-2.9253 LIGHT -0.2984
-2.9253 LIGHTNING -0.2306
-2.9253 LIGHTS -0.2306
-2.9253 LISTEN -0.2306
-2.9253 MOSTLY -0.3000
-2.6243 MUSIC -0.2306
-2.6243 NEXT -0.2306
-2.9253 NORTH -0.2306
-2.3233 OF -0.2953
-2.9253 ONE -0.2306
-2.9253 PARTLY -0.3005
-2.9253 PAST -0.2306
-2.6243 PITCH -0.2306
-2.9253 POOR -0.3000
-2.9253 PRECIPITATION -0.2306
-2.9253 PRESSURE -0.2306
-2.9253 PROCESS -0.2306
-2.9253 QUALITY -0.2306
-2.2263 RAIN -0.2306
-2.9253 RAINBOW -0.2306
-2.9253 RAINING -0.2306
-2.9253 RAINY -0.2306
-2.9253 RIGHT -0.2306
-2.9253 SAND -0.2995
-2.9253 SHIFT -0.2306
-2.9253 SHORT -0.3000
-2.9253 SKY -0.2306
-2.9253 SLEET -0.2306
-2.9253 SLEETING -0.2306
-2.9253 SLIGHT -0.2995
-2.9253 SNOW -0.2306
-2.9253 SNOWING -0.2306
-2.9253 SNOWY -0.2306
-2.9253 SOUTH -0.2306
-2.9253 SPEED -0.2306
-2.9253 SPRING -0.2306
-2.9253 STAR -0.2306
-2.9253 STARS -0.2306
-2.9253 STOP -0.2306
-2.4482 STORM -0.2306
-2.9253 STORMY -0.2306
-2.9253 SUMMER -0.2306
-2.9253 SUN -0.2306
-2.6243 SUNNY -0.2306
-2.9253 TEMPERATURE -0.2306
-2.9253 TEN -0.2306
-2.4482 THE -0.2282
-2.9253 THEIR -0.2306
-2.9253 THEN -0.2306
-2.4482 THERE -0.2300
-2.9253 THREE -0.2306
-2.9253 THUNDER -0.2306
-2.9253 THUNDERSTORMS -0.2306
-2.6243 TODAY -0.2306
-2.6243 TODAYS -0.2300
-2.9253 TOMORROW -0.2306
-2.9253 TOMORROWS -0.2306
-2.9253 TORNADO -0.2306
-2.9253 TORNADOS -0.2306
-2.9253 TSUNAMI -0.2306
-2.9253 TWENTY -0.2306
-2.9253 TWO -0.2306
-2.9253 UNHEALTHY -0.2306
-2.9253 UV -0.3005
-2.9253 WARM -0.2306
-2.9253 WARNING -0.2306
-2.4482 WEATHER -0.2288
-2.9253 WEST -0.2306
-2.9253 WHAT -0.2995
-2.9253 WHAT'S -0.2306
-2.9253 WILL -0.3005
-2.3233 WIND -0.2288
-2.9253 WINDY -0.2306
-2.9253 WINTER -0.2995

\2-grams:
-2.4014 <s> AFTER 0.0000
-2.4014 <s> ATMOSPHERIC 0.0000
-2.4014 <s> BAD 0.0000
-2.4014 <s> BEATS 0.0000
-2.4014 <s> BEFORE 0.0000
-2.4014 <s> BLIZZARD 0.0000
-2.4014 <s> BRIGHT 0.0000
-2.4014 <s> CHANCE -0.2218
-2.4014 <s> CLEAR 0.0000
-2.4014 <s> COLD 0.0000
-2.1004 <s> CURRENT 0.0000
-2.4014 <s> DANCE 0.0000
-2.4014 <s> DENSE 0.0000
-2.4014 <s> DROUGHT 0.0000
-2.4014 <s> DUST 0.0000
-2.4014 <s> EAST 0.0000
-2.4014 <s> FALL 0.0000
-1.9243 <s> FIRE 0.0000
-2.1004 <s> FIREWORK 0.0000
-2.1004 <s> FIREWORKS 0.0000
-2.4014 <s> FIVE 0.0000
-2.4014 <s> FLASH 0.0000
-2.4014 <s> FLICKER 0.0000
-2.4014 <s> FLOOD -0.1761
-2.4014 <s> FOG 0.0000
-2.4014 <s> FOGGY 0.0000
-2.4014 <s> FREEZING 0.0000
-2.4014 <s> GALAXY 0.0000
-2.4014 <s> GOOD 0.0000
-2.1004 <s> GUST 0.0000
-2.4014 <s> HAIL 0.0000
-2.4014 <s> HAILING 0.0000
-2.4014 <s> HAZARDOUS 0.0000
-2.4014 <s> HEALTHY 0.0000
-2.4014 <s> HEAT 0.0000
-2.4014 <s> HEAVY 0.0000
-2.1004 <s> HOT 0.0000
-2.4014 <s> HUMIDITY 0.0000
-2.4014 <s> HURRICANES 0.0000
-2.4014 <s> ICE 0.0000
-2.4014 <s> ICY 0.0000
-2.1004 <s> IS -0.1249
-2.4014 <s> KILL 0.0000
-2.1004 <s> LAST 0.0000
-2.4014 <s> LEFT 0.0000
-2.4014 <s> LIGHTNING 0.0000
-2.4014 <s> LISTEN 0.0000
-2.4014 <s> MOSTLY 0.0000
-2.1004 <s> MUSIC 0.0000
-2.1004 <s> NEXT 0.0000
-2.4014 <s> NORTH 0.0000
-2.4014 <s> ONE 0.0000
-2.4014 <s> PARTLY 0.0000
-2.4014 <s> PAST 0.0000
-2.1004 <s> PITCH 0.0000
-2.4014 <s> POOR 0.0000
-2.4014 <s> PRECIPITATION 0.0000
-2.4014 <s> RAIN 0.0000
-2.4014 <s> RAINBOW 0.0000
-2.4014 <s> RAINING 0.0000
-2.4014 <s> RAINY 0.0000
-2.4014 <s> RIGHT 0.0000
-2.4014 <s> SAND 0.0000
-2.4014 <s> SHIFT 0.0000
-2.4014 <s> SHORT 0.0000
-2.4014 <s> SLEET 0.0000
-2.4014 <s> SLEETING 0.0000
-2.4014 <s> SLIGHT 0.0000
-2.4014 <s> SNOW 0.0000
-2.4014 <s> SNOWING 0.0000
-2.4014 <s> SNOWY 0.0000
-2.4014 <s> SOUTH 0.0000
-2.4014 <s> SPRING 0.0000
-2.4014 <s> STAR 0.0000
-2.4014 <s> STARS 0.0000
-2.4014 <s> STOP 0.0000
-2.4014 <s> STORMY 0.0000
-2.4014 <s> SUMMER 0.0000
-2.4014 <s> SUN 0.0000
-2.4014 <s> SUNNY 0.0000
-2.4014 <s> TEN 0.0000
-2.1004 <s> THE -0.1249
-2.4014 <s> THEIR 0.0000
-2.4014 <s> THEN 0.0000
-2.1004 <s> THERE -0.1249
-2.4014 <s> THREE 0.0000
-2.4014 <s> THUNDER 0.0000
-2.4014 <s> THUNDERSTORMS 0.0000
-2.1004 <s> TODAY 0.0000
-2.1004 <s> TODAYS 0.0000
-2.4014 <s> TOMORROW 0.0000
-2.4014 <s> TOMORROWS 0.0000
-2.4014 <s> TORNADO 0.0000
-2.4014 <s> TORNADOS 0.0000
-2.4014 <s> TSUNAMI 0.0000
-2.4014 <s> TWENTY 0.0000
-2.4014 <s> TWO 0.0000
-2.4014 <s> UNHEALTHY 0.0000
-2.4014 <s> UV 0.0000
-2.4014 <s> WARM 0.0000
-2.1004 <s> WEATHER -0.1249
-2.4014 <s> WEST 0.0000
-2.4014 <s> WHAT 0.0000
-2.4014 <s> WHAT'S 0.0000
-2.4014 <s> WILL 0.0000
-2.1004 <s> WIND -0.1761
-2.4014 <s> WINDY 0.0000
-2.4014 <s> WINTER 0.0000
-0.3010 A CHANCE -0.1249
-0.3010 ADVISORY </s> -0.3010
-0.3010 AFTER </s> -0.3010
-0.6021 AIR </s> -0.3010
-0.6021 AIR QUALITY 0.0000
-0.3010 ATMOSPHERIC PRESSURE 0.0000
-0.3010 BAD </s> -0.3010
-0.3010 BEATS </s> -0.3010
-0.3010 BEFORE </s> -0.3010
-0.3010 BLIZZARD </s> -0.3010
-0.3010 BRIGHT </s> -0.3010
-0.7782 CHANCE LIGHT 0.0000
-0.4771 CHANCE OF -0.1761
-0.3010 CLEAR SKY 0.0000
-0.3010 CLOUDY </s> -0.3010
-0.3010 COLD </s> -0.3010
-0.3010 CONDITIONS </s> -0.3010
-0.3010 CURRENT </s> -0.3010
-0.3010 DANCE </s> -0.3010
-0.3010 DENSE FOG 0.0000
-0.3010 DIRECTION </s> -0.3010
-0.3010 DROUGHT </s> -0.3010
-0.3010 DUST STORM 0.0000
-0.3010 EAST </s> -0.3010
-0.3010 FALL </s> -0.3010
-0.7782 FIRE </s> -0.3010
-0.7782 FIRE FLICKER 0.0000
-0.7782 FIRE LIGHTS 0.0000
-0.3010 FIREWORK </s> -0.3010
-0.3010 FIREWORKS </s> -0.3010
-0.3010 FIVE </s> -0.3010
-0.3010 FLASH FLOOD -0.1761
-0.3010 FLICKER </s> -0.3010
-0.6021 FLOOD </s> -0.3010
-0.6021 FLOOD WARNING 0.0000
-0.3010 FOG </s> -0.3010
-0.3010 FOGGY </s> -0.3010
-0.3010 FORECAST </s> -0.3010
-0.3010 FREEZING </s> -0.3010
-0.3010 GALAXY </s> -0.3010
-0.3010 GOOD </s> -0.3010
-0.3010 GUST OF -0.1761
-0.3010 HAIL </s> -0.3010
-0.3010 HAILING </s> -0.3010
-0.3010 HAZARDOUS WEATHER -0.2218
-0.3010 HEALTHY </s> -0.3010
-0.3010 HEAT </s> -0.3010
-0.3010 HEAVY </s> -0.3010
-0.3010 HOT </s> -0.3010
-0.3010 HUMIDITY </s> -0.3010
-0.3010 HURRICANES </s> -0.3010
-0.3010 ICE </s> -0.3010
-0.3010 ICY </s> -0.3010
-0.3010 INDEX </s> -0.3010
-0.7782 IS </s> -0.3010
-0.7782 IS THE -0.2218
-0.7782 IS THERE -0.2218
-0.3010 IT RAIN 0.0000
-0.3010 KILL PROCESS 0.0000
-0.3010 LAST </s> -0.3010
-0.3010 LEFT </s> -0.3010
-0.3010 LIGHT RAIN 0.0000
-0.3010 LIGHTNING </s> -0.3010
-0.3010 LIGHTS </s> -0.3010
-0.3010 LISTEN </s> -0.3010
-0.3010 MOSTLY SUNNY 0.0000
-0.3010 MUSIC </s> -0.3010
-0.3010 NEXT </s> -0.3010
-0.3010 NORTH </s> -0.3010
-0.9031 OF AIR -0.1761
-0.6021 OF RAIN 0.0000
-0.9031 OF WIND -0.2430
-0.3010 ONE </s> -0.3010
-0.3010 PARTLY CLOUDY 0.0000
-0.3010 PAST </s> -0.3010
-0.3010 PITCH </s> -0.3010
-0.3010 POOR AIR -0.1761
-0.3010 PRECIPITATION </s> -0.3010
-0.3010 PRESSURE </s> -0.3010
-0.3010 PROCESS </s> -0.3010
-0.3010 QUALITY </s> -0.3010
-0.3010 RAIN </s> -0.3010
-0.3010 RAINBOW </s> -0.3010
-0.3010 RAINING </s> -0.3010
-0.3010 RAINY </s> -0.3010
-0.3010 RIGHT </s> -0.3010
-0.3010 SAND STORM 0.0000
-0.3010 SHIFT </s> -0.3010
-0.3010 SHORT FORECAST 0.0000
-0.3010 SKY </s> -0.3010
-0.3010 SLEET </s> -0.3010
-0.3010 SLEETING </s> -0.3010
-0.3010 SLIGHT CHANCE -0.1249
-0.3010 SNOW </s> -0.3010
-0.3010 SNOWING </s> -0.3010
-0.3010 SNOWY </s> -0.3010
-0.3010 SOUTH </s> -0.3010
-0.3010 SPEED </s> -0.3010
-0.3010 SPRING </s> -0.3010
-0.3010 STAR </s> -0.3010
-0.3010 STARS </s> -0.3010
-0.3010 STOP </s> -0.3010
-0.3010 STORM </s> -0.3010
-0.3010 STORMY </s> -0.3010
-0.3010 SUMMER </s> -0.3010
-0.3010 SUN </s> -0.3010
-0.3010 SUNNY </s> -0.3010
-0.3010 TEMPERATURE </s> -0.3010
-0.3010 TEN </s> -0.3010
-0.4771 THE </s> -0.3010
-0.7782 THE WIND -0.2430
-0.3010 THEIR </s> -0.3010
-0.3010 THEN </s> -0.3010
-0.4771 THERE </s> -0.3010
-0.7782 THERE A 0.0000
-0.3010 THREE </s> -0.3010
-0.3010 THUNDER </s> -0.3010
-0.3010 THUNDERSTORMS </s> -0.3010
-0.3010 TODAY </s> -0.3010
-0.6021 TODAYS </s> -0.3010
-0.6021 TODAYS TEMPERATURE 0.0000
-0.3010 TOMORROW </s> -0.3010
-0.3010 TOMORROWS </s> -0.3010
-0.3010 TORNADO </s> -0.3010
-0.3010 TORNADOS </s> -0.3010
-0.3010 TSUNAMI </s> -0.3010
-0.3010 TWENTY </s> -0.3010
-0.3010 TWO </s> -0.3010
-0.3010 UNHEALTHY </s> -0.3010
-0.3010 UV INDEX 0.0000
-0.3010 WARM </s> -0.3010
-0.3010 WARNING </s> -0.3010
-0.7782 WEATHER </s> -0.3010
-0.7782 WEATHER CONDITIONS 0.0000
-0.7782 WEATHER FORECAST 0.0000
-0.3010 WEST </s> -0.3010
-0.3010 WHAT IS -0.2218
-0.3010 WHAT'S </s> -0.3010
-0.3010 WILL IT 0.0000
-0.9031 WIND </s> -0.3010
-0.9031 WIND ADVISORY 0.0000
-0.9031 WIND DIRECTION 0.0000
-0.9031 WIND SPEED 0.0000
-0.3010 WINDY </s> -0.3010
-0.3010 WINTER STORM 0.0000

\3-grams:
-0.3010 <s> AFTER </s>
-0.3010 <s> ATMOSPHERIC PRESSURE
-0.3010 <s> BAD </s>
-0.3010 <s> BEATS </s>
-0.3010 <s> BEFORE </s>
-0.3010 <s> BLIZZARD </s>
-0.3010 <s> BRIGHT </s>
-0.3010 <s> CHANCE LIGHT
-0.3010 <s> CLEAR SKY
-0.3010 <s> COLD </s>
-0.3010 <s> CURRENT </s>
-0.3010 <s> DANCE </s>
-0.3010 <s> DENSE FOG
-0.3010 <s> DROUGHT </s>
-0.3010 <s> DUST STORM
-0.3010 <s> EAST </s>
-0.3010 <s> FALL </s>
-0.7782 <s> FIRE </s>
-0.7782 <s> FIRE FLICKER
-0.7782 <s> FIRE LIGHTS
-0.3010 <s> FIREWORK </s>
-0.3010 <s> FIREWORKS </s>
-0.3010 <s> FIVE </s>
-0.3010 <s> FLASH FLOOD
-0.3010 <s> FLICKER </s>
-0.3010 <s> FLOOD WARNING
-0.3010 <s> FOG </s>
-0.3010 <s> FOGGY </s>
-0.3010 <s> FREEZING </s>
-0.3010 <s> GALAXY </s>
-0.3010 <s> GOOD </s>
-0.3010 <s> GUST OF
-0.3010 <s> HAIL </s>
-0.3010 <s> HAILING </s>
-0.3010 <s> HAZARDOUS WEATHER
-0.3010 <s> HEALTHY </s>
-0.3010 <s> HEAT </s>
-0.3010 <s> HEAVY </s>
-0.3010 <s> HOT </s>
-0.3010 <s> HUMIDITY </s>
-0.3010 <s> HURRICANES </s>
-0.3010 <s> ICE </s>
-0.3010 <s> ICY </s>
-0.6021 <s> IS </s>
-0.6021 <s> IS THERE
-0.3010 <s> KILL PROCESS
-0.3010 <s> LAST </s>
-0.3010 <s> LEFT </s>
-0.3010 <s> LIGHTNING </s>
-0.3010 <s> LISTEN </s>
-0.3010 <s> MOSTLY SUNNY
-0.3010 <s> MUSIC </s>
-0.3010 <s> NEXT </s>
-0.3010 <s> NORTH </s>
-0.3010 <s> ONE </s>
-0.3010 <s> PARTLY CLOUDY
-0.3010 <s> PAST </s>
-0.3010 <s> PITCH </s>
-0.3010 <s> POOR AIR
-0.3010 <s> PRECIPITATION </s>
-0.3010 <s> RAIN </s>
-0.3010 <s> RAINBOW </s>
-0.3010 <s> RAINING </s>
-0.3010 <s> RAINY </s>
-0.3010 <s> RIGHT </s>
-0.3010 <s> SAND STORM
-0.3010 <s> SHIFT </s>
-0.3010 <s> SHORT FORECAST
-0.3010 <s> SLEET </s>
-0.3010 <s> SLEETING </s>
-0.3010 <s> SLIGHT CHANCE
-0.3010 <s> SNOW </s>
-0.3010 <s> SNOWING </s>
-0.3010 <s> SNOWY </s>
-0.3010 <s> SOUTH </s>
-0.3010 <s> SPRING </s>
-0.3010 <s> STAR </s>
-0.3010 <s> STARS </s>
-0.3010 <s> STOP </s>
-0.3010 <s> STORMY </s>
-0.3010 <s> SUMMER </s>
-0.3010 <s> SUN </s>
-0.3010 <s> SUNNY </s>
-0.3010 <s> TEN </s>
-0.3010 <s> THE </s>
-0.3010 <s> THEIR </s>
-0.3010 <s> THEN </s>
-0.3010 <s> THERE </s>
-0.3010 <s> THREE </s>
-0.3010 <s> THUNDER </s>
-0.3010 <s> THUNDERSTORMS </s>
-0.3010 <s> TODAY </s>
-0.6021 <s> TODAYS </s>
-0.6021 <s> TODAYS TEMPERATURE
-0.3010 <s> TOMORROW </s>
-0.3010 <s> TOMORROWS </s>
-0.3010 <s> TORNADO </s>
-0.3010 <s> TORNADOS </s>
-0.3010 <s> TSUNAMI </s>
-0.3010 <s> TWENTY </s>
-0.3010 <s> TWO </s>
-0.3010 <s> UNHEALTHY </s>
-0.3010 <s> UV INDEX
-0.3010 <s> WARM </s>
-0.6021 <s> WEATHER CONDITIONS
-0.6021 <s> WEATHER FORECAST
-0.3010 <s> WEST </s>
-0.3010 <s> WHAT IS
-0.3010 <s> WHAT'S </s>
-0.3010 <s> WILL IT
-0.6021 <s> WIND ADVISORY
-0.6021 <s> WIND DIRECTION
-0.3010 <s> WINDY </s>
-0.3010 <s> WINTER STORM
-0.3010 A CHANCE OF
-0.3010 AIR QUALITY </s>
-0.3010 ATMOSPHERIC PRESSURE </s>
-0.3010 CHANCE LIGHT RAIN
-0.3010 CHANCE OF RAIN
-0.3010 CLEAR SKY </s>
-0.3010 DENSE FOG </s>
-0.3010 DUST STORM </s>
-0.3010 FIRE FLICKER </s>
-0.3010 FIRE LIGHTS </s>
-0.3010 FLASH FLOOD </s>
-0.3010 FLOOD WARNING </s>
-0.6021 GUST OF AIR
-0.6021 GUST OF WIND
-0.3010 HAZARDOUS WEATHER </s>
-0.3010 IS THE WIND
-0.3010 IS THERE A
-0.3010 IT RAIN </s>
-0.3010 KILL PROCESS </s>
-0.3010 LIGHT RAIN </s>
-0.3010 MOSTLY SUNNY </s>
-0.3010 OF AIR </s>
-0.3010 OF RAIN </s>
-0.3010 OF WIND </s>
-0.3010 PARTLY CLOUDY </s>
-0.3010 POOR AIR QUALITY
-0.3010 SAND STORM </s>
-0.3010 SHORT FORECAST </s>
-0.3010 SLIGHT CHANCE OF
-0.3010 THE WIND SPEED
-0.3010 THERE A CHANCE
-0.3010 TODAYS TEMPERATURE </s>
-0.3010 UV INDEX </s>
-0.3010 WEATHER CONDITIONS </s>
-0.3010 WEATHER FORECAST </s>
-0.3010 WHAT IS THE
-0.3010 WILL IT RAIN
-0.3010 WIND ADVISORY </s>
-0.3010 WIND DIRECTION </s>
-0.3010 WIND SPEED </s>
-0.3010 WINTER STORM </s>

\end\
