Language model created by QuickLM on Sat Jan  2 01:44:28 EST 2021
Copyright (c) 1996-2010 Carnegie Mellon University and Alexander I. Rudnicky

The model is in standard ARPA format, designed by Doug Paul while he was at MITRE.

The code that was used to produce this language model is available in Open Source.
Please visit http://www.speech.cs.cmu.edu/tools/ for more information

The (fixed) discount mass is 0.5. The backoffs are computed using the ratio method.
This model based on a corpus of 91 sentences and 107 words

\data\
ngram 1=107
ngram 2=203
ngram 3=125

\1-grams:
-0.8319 </s> -0.3010
-0.8319 <s> -0.2227
-2.7910 ADVISORY -0.2319
-2.7910 AFTER -0.2319
-2.4900 AIR -0.2310
-2.7910 ATMOSPHERIC -0.3003
-2.7910 BAD -0.2319
-2.7910 BEFORE -0.2319
-2.7910 BLIZZARD -0.2319
-2.7910 BRIGHT -0.2319
-2.4900 CHANCE -0.2982
-2.7910 CLEAR -0.3003
-2.7910 CLOUDY -0.2319
-2.7910 COLD -0.2319
-2.7910 CONDITIONS -0.2319
-2.7910 CURRENT -0.2319
-2.7910 DENSE -0.2996
-2.7910 DIRECTION -0.2319
-2.7910 DROUGHT -0.2319
-2.7910 DUST -0.2989
-2.7910 EAST -0.2319
-2.7910 FALL -0.2319
-2.7910 FIRE -0.3003
-2.7910 FLASH -0.2996
-2.4900 FLOOD -0.2310
-2.4900 FOG -0.2319
-2.7910 FOGGY -0.2319
-2.4900 FORECAST -0.2319
-2.7910 FREEZING -0.2319
-2.7910 GALAXY -0.2319
-2.7910 GOOD -0.2319
-2.4900 GUST -0.2989
-2.7910 HAIL -0.2319
-2.7910 HAILING -0.2319
-2.7910 HAZARDOUS -0.2989
-2.7910 HEALTHY -0.2319
-2.7910 HEAT -0.2319
-2.7910 HEAVY -0.2319
-2.4900 HOT -0.2319
-2.7910 HUMIDITY -0.2319
-2.7910 HURRICANES -0.2319
-2.7910 ICE -0.2319
-2.7910 ICY -0.2319
-2.7910 INDEX -0.2319
-2.7910 IS -0.2996
-2.7910 IT -0.2982
-2.7910 LAST -0.2319
-2.7910 LIGHT -0.2982
-2.7910 LIGHTNING -0.2319
-2.7910 LIGHTS -0.2319
-2.7910 MOSTLY -0.2996
-2.7910 NEXT -0.2319
-2.7910 NORTH -0.2319
-2.3139 OF -0.2939
-2.7910 PARTLY -0.3003
-2.7910 POOR -0.2996
-2.7910 PRECIPITATION -0.2319
-2.7910 PRESSURE -0.2319
-2.7910 QUALITY -0.2319
-2.1889 RAIN -0.2319
-2.7910 RAINBOW -0.2319
-2.7910 RAINING -0.2319
-2.7910 RAINY -0.2319
-2.7910 SAND -0.2989
-2.7910 SHORT -0.2996
-2.7910 SKY -0.2319
-2.7910 SLEET -0.2319
-2.7910 SLEETING -0.2319
-2.7910 SLIGHT -0.2996
-2.7910 SNOW -0.2319
-2.7910 SNOWING -0.2319
-2.7910 SNOWY -0.2319
-2.7910 SOUTH -0.2319
-2.7910 SPEED -0.2319
-2.7910 SPRING -0.2319
-2.7910 STAR -0.2319
-2.7910 STARS -0.2319
-2.7910 STOP -0.2319
-2.3139 STORM -0.2319
-2.7910 STORMY -0.2319
-2.7910 SUMMER -0.2319
-2.7910 SUN -0.2319
-2.4900 SUNNY -0.2319
-2.7910 TEMPERATURE -0.2319
-2.4900 THE -0.2285
-2.7910 THERE -0.2319
-2.7910 THUNDER -0.2319
-2.7910 THUNDERSTORMS -0.2319
-2.7910 TODAY -0.2319
-2.4900 TODAYS -0.2310
-2.7910 TOMORROW -0.2319
-2.7910 TOMORROWS -0.2319
-2.7910 TORNADO -0.2319
-2.7910 TORNADOS -0.2319
-2.7910 TSUNAMI -0.2319
-2.7910 UNHEALTHY -0.2319
-2.7910 UV -0.3003
-2.7910 WARM -0.2319
-2.7910 WARNING -0.2319
-2.3139 WEATHER -0.2294
-2.7910 WEST -0.2319
-2.7910 WHAT -0.3003
-2.7910 WHAT'S -0.2319
-2.7910 WILL -0.3003
-2.1889 WIND -0.2294
-2.7910 WINDY -0.2319
-2.7910 WINTER -0.2989

\2-grams:
-2.2601 <s> AFTER 0.0000
-2.2601 <s> ATMOSPHERIC 0.0000
-2.2601 <s> BAD 0.0000
-2.2601 <s> BEFORE 0.0000
-2.2601 <s> BLIZZARD 0.0000
-2.2601 <s> BRIGHT 0.0000
-2.2601 <s> CHANCE -0.1761
-2.2601 <s> CLEAR 0.0000
-2.2601 <s> COLD 0.0000
-2.2601 <s> CURRENT 0.0000
-2.2601 <s> DENSE 0.0000
-2.2601 <s> DROUGHT 0.0000
-2.2601 <s> DUST 0.0000
-2.2601 <s> EAST 0.0000
-2.2601 <s> FALL 0.0000
-2.2601 <s> FIRE 0.0000
-2.2601 <s> FLASH 0.0000
-2.2601 <s> FLOOD -0.1761
-2.2601 <s> FOG 0.0000
-2.2601 <s> FOGGY 0.0000
-2.2601 <s> FREEZING 0.0000
-2.2601 <s> GALAXY 0.0000
-2.2601 <s> GOOD 0.0000
-1.9590 <s> GUST 0.0000
-2.2601 <s> HAIL 0.0000
-2.2601 <s> HAILING 0.0000
-2.2601 <s> HAZARDOUS 0.0000
-2.2601 <s> HEALTHY 0.0000
-2.2601 <s> HEAT 0.0000
-2.2601 <s> HEAVY 0.0000
-1.9590 <s> HOT 0.0000
-2.2601 <s> HUMIDITY 0.0000
-2.2601 <s> HURRICANES 0.0000
-2.2601 <s> ICE 0.0000
-2.2601 <s> ICY 0.0000
-2.2601 <s> LAST 0.0000
-2.2601 <s> LIGHTNING 0.0000
-2.2601 <s> MOSTLY 0.0000
-2.2601 <s> NEXT 0.0000
-2.2601 <s> NORTH 0.0000
-2.2601 <s> PARTLY 0.0000
-2.2601 <s> POOR 0.0000
-2.2601 <s> PRECIPITATION 0.0000
-2.2601 <s> RAIN 0.0000
-2.2601 <s> RAINBOW 0.0000
-2.2601 <s> RAINING 0.0000
-2.2601 <s> RAINY 0.0000
-2.2601 <s> SAND 0.0000
-2.2601 <s> SHORT 0.0000
-2.2601 <s> SLEET 0.0000
-2.2601 <s> SLEETING 0.0000
-2.2601 <s> SLIGHT 0.0000
-2.2601 <s> SNOW 0.0000
-2.2601 <s> SNOWING 0.0000
-2.2601 <s> SNOWY 0.0000
-2.2601 <s> SOUTH 0.0000
-2.2601 <s> SPRING 0.0000
-2.2601 <s> STAR 0.0000
-2.2601 <s> STARS 0.0000
-2.2601 <s> STOP 0.0000
-2.2601 <s> STORMY 0.0000
-2.2601 <s> SUMMER 0.0000
-2.2601 <s> SUN 0.0000
-2.2601 <s> SUNNY 0.0000
-2.2601 <s> THE -0.1761
-2.2601 <s> THERE 0.0000
-2.2601 <s> THUNDER 0.0000
-2.2601 <s> THUNDERSTORMS 0.0000
-2.2601 <s> TODAY 0.0000
-1.9590 <s> TODAYS 0.0000
-2.2601 <s> TOMORROW 0.0000
-2.2601 <s> TOMORROWS 0.0000
-2.2601 <s> TORNADO 0.0000
-2.2601 <s> TORNADOS 0.0000
-2.2601 <s> TSUNAMI 0.0000
-2.2601 <s> UNHEALTHY 0.0000
-2.2601 <s> UV 0.0000
-2.2601 <s> WARM 0.0000
-1.9590 <s> WEATHER -0.1249
-2.2601 <s> WEST 0.0000
-2.2601 <s> WHAT 0.0000
-2.2601 <s> WHAT'S 0.0000
-2.2601 <s> WILL 0.0000
-1.9590 <s> WIND -0.1761
-2.2601 <s> WINDY 0.0000
-2.2601 <s> WINTER 0.0000
-0.3010 ADVISORY </s> -0.3010
-0.3010 AFTER </s> -0.3010
-0.6021 AIR </s> -0.3010
-0.6021 AIR QUALITY 0.0000
-0.3010 ATMOSPHERIC PRESSURE 0.0000
-0.3010 BAD </s> -0.3010
-0.3010 BEFORE </s> -0.3010
-0.3010 BLIZZARD </s> -0.3010
-0.3010 BRIGHT </s> -0.3010
-0.6021 CHANCE LIGHT 0.0000
-0.6021 CHANCE OF -0.2218
-0.3010 CLEAR SKY 0.0000
-0.3010 CLOUDY </s> -0.3010
-0.3010 COLD </s> -0.3010
-0.3010 CONDITIONS </s> -0.3010
-0.3010 CURRENT </s> -0.3010
-0.3010 DENSE FOG 0.0000
-0.3010 DIRECTION </s> -0.3010
-0.3010 DROUGHT </s> -0.3010
-0.3010 DUST STORM 0.0000
-0.3010 EAST </s> -0.3010
-0.3010 FALL </s> -0.3010
-0.3010 FIRE LIGHTS 0.0000
-0.3010 FLASH FLOOD -0.1761
-0.6021 FLOOD </s> -0.3010
-0.6021 FLOOD WARNING 0.0000
-0.3010 FOG </s> -0.3010
-0.3010 FOGGY </s> -0.3010
-0.3010 FORECAST </s> -0.3010
-0.3010 FREEZING </s> -0.3010
-0.3010 GALAXY </s> -0.3010
-0.3010 GOOD </s> -0.3010
-0.3010 GUST OF -0.1249
-0.3010 HAIL </s> -0.3010
-0.3010 HAILING </s> -0.3010
-0.3010 HAZARDOUS WEATHER -0.2218
-0.3010 HEALTHY </s> -0.3010
-0.3010 HEAT </s> -0.3010
-0.3010 HEAVY </s> -0.3010
-0.3010 HOT </s> -0.3010
-0.3010 HUMIDITY </s> -0.3010
-0.3010 HURRICANES </s> -0.3010
-0.3010 ICE </s> -0.3010
-0.3010 ICY </s> -0.3010
-0.3010 INDEX </s> -0.3010
-0.3010 IS THE -0.1761
-0.3010 IT RAIN 0.0000
-0.3010 LAST </s> -0.3010
-0.3010 LIGHT RAIN 0.0000
-0.3010 LIGHTNING </s> -0.3010
-0.3010 LIGHTS </s> -0.3010
-0.3010 MOSTLY SUNNY 0.0000
-0.3010 NEXT </s> -0.3010
-0.3010 NORTH </s> -0.3010
-0.7782 OF AIR -0.1761
-0.7782 OF RAIN 0.0000
-0.7782 OF WIND -0.2430
-0.3010 PARTLY CLOUDY 0.0000
-0.3010 POOR AIR -0.1761
-0.3010 PRECIPITATION </s> -0.3010
-0.3010 PRESSURE </s> -0.3010
-0.3010 QUALITY </s> -0.3010
-0.3010 RAIN </s> -0.3010
-0.3010 RAINBOW </s> -0.3010
-0.3010 RAINING </s> -0.3010
-0.3010 RAINY </s> -0.3010
-0.3010 SAND STORM 0.0000
-0.3010 SHORT FORECAST 0.0000
-0.3010 SKY </s> -0.3010
-0.3010 SLEET </s> -0.3010
-0.3010 SLEETING </s> -0.3010
-0.3010 SLIGHT CHANCE -0.1761
-0.3010 SNOW </s> -0.3010
-0.3010 SNOWING </s> -0.3010
-0.3010 SNOWY </s> -0.3010
-0.3010 SOUTH </s> -0.3010
-0.3010 SPEED </s> -0.3010
-0.3010 SPRING </s> -0.3010
-0.3010 STAR </s> -0.3010
-0.3010 STARS </s> -0.3010
-0.3010 STOP </s> -0.3010
-0.3010 STORM </s> -0.3010
-0.3010 STORMY </s> -0.3010
-0.3010 SUMMER </s> -0.3010
-0.3010 SUN </s> -0.3010
-0.3010 SUNNY </s> -0.3010
-0.3010 TEMPERATURE </s> -0.3010
-0.6021 THE </s> -0.3010
-0.6021 THE WIND -0.2430
-0.3010 THERE </s> -0.3010
-0.3010 THUNDER </s> -0.3010
-0.3010 THUNDERSTORMS </s> -0.3010
-0.3010 TODAY </s> -0.3010
-0.6021 TODAYS </s> -0.3010
-0.6021 TODAYS TEMPERATURE 0.0000
-0.3010 TOMORROW </s> -0.3010
-0.3010 TOMORROWS </s> -0.3010
-0.3010 TORNADO </s> -0.3010
-0.3010 TORNADOS </s> -0.3010
-0.3010 TSUNAMI </s> -0.3010
-0.3010 UNHEALTHY </s> -0.3010
-0.3010 UV INDEX 0.0000
-0.3010 WARM </s> -0.3010
-0.3010 WARNING </s> -0.3010
-0.7782 WEATHER </s> -0.3010
-0.7782 WEATHER CONDITIONS 0.0000
-0.7782 WEATHER FORECAST 0.0000
-0.3010 WEST </s> -0.3010
-0.3010 WHAT IS 0.0000
-0.3010 WHAT'S </s> -0.3010
-0.3010 WILL IT 0.0000
-0.9031 WIND </s> -0.3010
-0.9031 WIND ADVISORY 0.0000
-0.9031 WIND DIRECTION 0.0000
-0.9031 WIND SPEED 0.0000
-0.3010 WINDY </s> -0.3010
-0.3010 WINTER STORM 0.0000

\3-grams:
-0.3010 <s> AFTER </s>
-0.3010 <s> ATMOSPHERIC PRESSURE
-0.3010 <s> BAD </s>
-0.3010 <s> BEFORE </s>
-0.3010 <s> BLIZZARD </s>
-0.3010 <s> BRIGHT </s>
-0.3010 <s> CHANCE LIGHT
-0.3010 <s> CLEAR SKY
-0.3010 <s> COLD </s>
-0.3010 <s> CURRENT </s>
-0.3010 <s> DENSE FOG
-0.3010 <s> DROUGHT </s>
-0.3010 <s> DUST STORM
-0.3010 <s> EAST </s>
-0.3010 <s> FALL </s>
-0.3010 <s> FIRE LIGHTS
-0.3010 <s> FLASH FLOOD
-0.3010 <s> FLOOD WARNING
-0.3010 <s> FOG </s>
-0.3010 <s> FOGGY </s>
-0.3010 <s> FREEZING </s>
-0.3010 <s> GALAXY </s>
-0.3010 <s> GOOD </s>
-0.3010 <s> GUST OF
-0.3010 <s> HAIL </s>
-0.3010 <s> HAILING </s>
-0.3010 <s> HAZARDOUS WEATHER
-0.3010 <s> HEALTHY </s>
-0.3010 <s> HEAT </s>
-0.3010 <s> HEAVY </s>
-0.3010 <s> HOT </s>
-0.3010 <s> HUMIDITY </s>
-0.3010 <s> HURRICANES </s>
-0.3010 <s> ICE </s>
-0.3010 <s> ICY </s>
-0.3010 <s> LAST </s>
-0.3010 <s> LIGHTNING </s>
-0.3010 <s> MOSTLY SUNNY
-0.3010 <s> NEXT </s>
-0.3010 <s> NORTH </s>
-0.3010 <s> PARTLY CLOUDY
-0.3010 <s> POOR AIR
-0.3010 <s> PRECIPITATION </s>
-0.3010 <s> RAIN </s>
-0.3010 <s> RAINBOW </s>
-0.3010 <s> RAINING </s>
-0.3010 <s> RAINY </s>
-0.3010 <s> SAND STORM
-0.3010 <s> SHORT FORECAST
-0.3010 <s> SLEET </s>
-0.3010 <s> SLEETING </s>
-0.3010 <s> SLIGHT CHANCE
-0.3010 <s> SNOW </s>
-0.3010 <s> SNOWING </s>
-0.3010 <s> SNOWY </s>
-0.3010 <s> SOUTH </s>
-0.3010 <s> SPRING </s>
-0.3010 <s> STAR </s>
-0.3010 <s> STARS </s>
-0.3010 <s> STOP </s>
-0.3010 <s> STORMY </s>
-0.3010 <s> SUMMER </s>
-0.3010 <s> SUN </s>
-0.3010 <s> SUNNY </s>
-0.3010 <s> THE </s>
-0.3010 <s> THERE </s>
-0.3010 <s> THUNDER </s>
-0.3010 <s> THUNDERSTORMS </s>
-0.3010 <s> TODAY </s>
-0.6021 <s> TODAYS </s>
-0.6021 <s> TODAYS TEMPERATURE
-0.3010 <s> TOMORROW </s>
-0.3010 <s> TOMORROWS </s>
-0.3010 <s> TORNADO </s>
-0.3010 <s> TORNADOS </s>
-0.3010 <s> TSUNAMI </s>
-0.3010 <s> UNHEALTHY </s>
-0.3010 <s> UV INDEX
-0.3010 <s> WARM </s>
-0.6021 <s> WEATHER CONDITIONS
-0.6021 <s> WEATHER FORECAST
-0.3010 <s> WEST </s>
-0.3010 <s> WHAT IS
-0.3010 <s> WHAT'S </s>
-0.3010 <s> WILL IT
-0.6021 <s> WIND ADVISORY
-0.6021 <s> WIND DIRECTION
-0.3010 <s> WINDY </s>
-0.3010 <s> WINTER STORM
-0.3010 AIR QUALITY </s>
-0.3010 ATMOSPHERIC PRESSURE </s>
-0.3010 CHANCE LIGHT RAIN
-0.3010 CHANCE OF RAIN
-0.3010 CLEAR SKY </s>
-0.3010 DENSE FOG </s>
-0.3010 DUST STORM </s>
-0.3010 FIRE LIGHTS </s>
-0.3010 FLASH FLOOD </s>
-0.3010 FLOOD WARNING </s>
-0.6021 GUST OF AIR
-0.6021 GUST OF WIND
-0.3010 HAZARDOUS WEATHER </s>
-0.3010 IS THE WIND
-0.3010 IT RAIN </s>
-0.3010 LIGHT RAIN </s>
-0.3010 MOSTLY SUNNY </s>
-0.3010 OF AIR </s>
-0.3010 OF RAIN </s>
-0.3010 OF WIND </s>
-0.3010 PARTLY CLOUDY </s>
-0.3010 POOR AIR QUALITY
-0.3010 SAND STORM </s>
-0.3010 SHORT FORECAST </s>
-0.3010 SLIGHT CHANCE OF
-0.3010 THE WIND SPEED
-0.3010 TODAYS TEMPERATURE </s>
-0.3010 UV INDEX </s>
-0.3010 WEATHER CONDITIONS </s>
-0.3010 WEATHER FORECAST </s>
-0.3010 WHAT IS THE
-0.3010 WILL IT RAIN
-0.3010 WIND ADVISORY </s>
-0.3010 WIND DIRECTION </s>
-0.3010 WIND SPEED </s>
-0.3010 WINTER STORM </s>

\end\
