Language model created by QuickLM on Wed Jun  9 22:50:01 EDT 2021
Copyright (c) 1996-2010 Carnegie Mellon University and Alexander I. Rudnicky

The model is in standard ARPA format, designed by Doug Paul while he was at MITRE.

The code that was used to produce this language model is available in Open Source.
Please visit http://www.speech.cs.cmu.edu/tools/ for more information

The (fixed) discount mass is 0.5. The backoffs are computed using the ratio method.
This model based on a corpus of 32 sentences and 44 words

\data\
ngram 1=44
ngram 2=76
ngram 3=47

\1-grams:
-2.3502 24 -0.2991
-0.8451 </s> -0.3010
-0.8451 <s> -0.2272
-2.3502 AFTER -0.2341
-2.3502 ALL -0.2971
-2.3502 BEFORE -0.2341
-2.3502 DANCE -0.2341
-2.0492 DAY -0.2341
-2.3502 FIRE -0.2341
-2.3502 FIREWORKS -0.2341
-2.3502 FIVE -0.2341
-2.3502 GALAXY -0.2341
-2.3502 HOUR -0.2341
-2.3502 ICE -0.2341
-2.0492 IS -0.2295
-2.3502 IT -0.2991
-2.3502 KILL -0.2991
-2.3502 LIGHT -0.2341
-2.3502 LIGHTS -0.2341
-2.3502 MOON -0.2341
-2.3502 MUSIC -0.2991
-2.3502 PHASE -0.2341
-2.3502 PITCH -0.2341
-2.3502 PROCESS -0.2341
-2.3502 RAIN -0.2991
-2.3502 RAINBOW -0.2341
-2.3502 REACT -0.2341
-2.3502 SNOW -0.2341
-2.0492 SPEED -0.2341
-2.3502 STOP -0.2991
-2.3502 SUN -0.2341
-2.3502 SUNNY -0.2341
-2.3502 TEN -0.2341
-2.0492 THE -0.2932
-2.3502 THREE -0.2341
-2.3502 TODAY -0.2341
-2.3502 TOMORROW -0.2341
-2.3502 TWENTY -0.2341
-2.0492 WEATHER -0.2341
-2.3502 WHAT -0.2971
-2.3502 WHAT'S -0.2971
-2.3502 WHOLE -0.2971
-2.3502 WILL -0.2991
-2.0492 WIND -0.2971

\2-grams:
-0.3010 24 HOUR 0.0000
-1.8062 <s> 24 0.0000
-1.8062 <s> AFTER 0.0000
-1.8062 <s> ALL 0.0000
-1.8062 <s> BEFORE 0.0000
-1.8062 <s> DANCE 0.0000
-1.8062 <s> FIRE 0.0000
-1.8062 <s> FIREWORKS 0.0000
-1.8062 <s> FIVE 0.0000
-1.8062 <s> GALAXY 0.0000
-1.8062 <s> ICE 0.0000
-1.8062 <s> IS -0.1761
-1.8062 <s> KILL 0.0000
-1.8062 <s> LIGHT 0.0000
-1.8062 <s> MOON 0.0000
-1.8062 <s> MUSIC 0.0000
-1.8062 <s> PHASE 0.0000
-1.8062 <s> PITCH 0.0000
-1.8062 <s> RAINBOW 0.0000
-1.8062 <s> SNOW 0.0000
-1.8062 <s> STOP 0.0000
-1.8062 <s> SUN 0.0000
-1.8062 <s> SUNNY 0.0000
-1.8062 <s> TEN 0.0000
-1.8062 <s> THREE 0.0000
-1.8062 <s> TOMORROW 0.0000
-1.8062 <s> TWENTY 0.0000
-1.8062 <s> WEATHER 0.0000
-1.8062 <s> WHAT 0.0000
-1.8062 <s> WHAT'S 0.0000
-1.8062 <s> WHOLE 0.0000
-1.8062 <s> WILL 0.0000
-1.8062 <s> WIND 0.0000
-0.3010 AFTER </s> -0.3010
-0.3010 ALL DAY 0.0000
-0.3010 BEFORE </s> -0.3010
-0.3010 DANCE </s> -0.3010
-0.3010 DAY </s> -0.3010
-0.3010 FIRE </s> -0.3010
-0.3010 FIREWORKS </s> -0.3010
-0.3010 FIVE </s> -0.3010
-0.3010 GALAXY </s> -0.3010
-0.3010 HOUR </s> -0.3010
-0.3010 ICE </s> -0.3010
-0.6021 IS </s> -0.3010
-0.6021 IS THE -0.1761
-0.3010 IT RAIN 0.0000
-0.3010 KILL PROCESS 0.0000
-0.3010 LIGHT </s> -0.3010
-0.3010 LIGHTS </s> -0.3010
-0.3010 MOON </s> -0.3010
-0.3010 MUSIC REACT 0.0000
-0.3010 PHASE </s> -0.3010
-0.3010 PITCH </s> -0.3010
-0.3010 PROCESS </s> -0.3010
-0.3010 RAIN TODAY 0.0000
-0.3010 RAINBOW </s> -0.3010
-0.3010 REACT </s> -0.3010
-0.3010 SNOW </s> -0.3010
-0.3010 SPEED </s> -0.3010
-0.3010 STOP LIGHTS 0.0000
-0.3010 SUN </s> -0.3010
-0.3010 SUNNY </s> -0.3010
-0.3010 TEN </s> -0.3010
-0.6021 THE WEATHER 0.0000
-0.6021 THE WIND 0.0000
-0.3010 THREE </s> -0.3010
-0.3010 TODAY </s> -0.3010
-0.3010 TOMORROW </s> -0.3010
-0.3010 TWENTY </s> -0.3010
-0.3010 WEATHER </s> -0.3010
-0.3010 WHAT IS -0.1761
-0.3010 WHAT'S THE -0.1761
-0.3010 WHOLE DAY 0.0000
-0.3010 WILL IT 0.0000
-0.3010 WIND SPEED 0.0000

\3-grams:
-0.3010 24 HOUR </s>
-0.3010 <s> 24 HOUR
-0.3010 <s> AFTER </s>
-0.3010 <s> ALL DAY
-0.3010 <s> BEFORE </s>
-0.3010 <s> DANCE </s>
-0.3010 <s> FIRE </s>
-0.3010 <s> FIREWORKS </s>
-0.3010 <s> FIVE </s>
-0.3010 <s> GALAXY </s>
-0.3010 <s> ICE </s>
-0.3010 <s> IS </s>
-0.3010 <s> KILL PROCESS
-0.3010 <s> LIGHT </s>
-0.3010 <s> MOON </s>
-0.3010 <s> MUSIC REACT
-0.3010 <s> PHASE </s>
-0.3010 <s> PITCH </s>
-0.3010 <s> RAINBOW </s>
-0.3010 <s> SNOW </s>
-0.3010 <s> STOP LIGHTS
-0.3010 <s> SUN </s>
-0.3010 <s> SUNNY </s>
-0.3010 <s> TEN </s>
-0.3010 <s> THREE </s>
-0.3010 <s> TOMORROW </s>
-0.3010 <s> TWENTY </s>
-0.3010 <s> WEATHER </s>
-0.3010 <s> WHAT IS
-0.3010 <s> WHAT'S THE
-0.3010 <s> WHOLE DAY
-0.3010 <s> WILL IT
-0.3010 <s> WIND SPEED
-0.3010 ALL DAY </s>
-0.3010 IS THE WEATHER
-0.3010 IT RAIN TODAY
-0.3010 KILL PROCESS </s>
-0.3010 MUSIC REACT </s>
-0.3010 RAIN TODAY </s>
-0.3010 STOP LIGHTS </s>
-0.3010 THE WEATHER </s>
-0.3010 THE WIND SPEED
-0.3010 WHAT IS THE
-0.3010 WHAT'S THE WIND
-0.3010 WHOLE DAY </s>
-0.3010 WILL IT RAIN
-0.3010 WIND SPEED </s>

\end\